digraph Tree {
node [shape=box, style="filled, rounded", color="black", fontname=helvetica] ;
edge [fontname=helvetica] ;
0 [label="V11 <= 2.0\ngini = 0.47\nsamples = 356\nvalue = [345, 211]\nclass = 0", fillcolor="#f5ceb2"] ;
1 [label="V4 <= 1.91\ngini = 0.26\nsamples = 261\nvalue = [342, 62]\nclass = 0", fillcolor="#ea985d"] ;
0 -> 1 [labeldistance=2.5, labelangle=45, headlabel="True"] ;
2 [label="V20 <= 0.83\ngini = 0.14\nsamples = 222\nvalue = [322, 26]\nclass = 0", fillcolor="#e78b49"] ;
1 -> 2 ;
3 [label="V16 <= -1.59\ngini = 0.12\nsamples = 220\nvalue = [322, 23]\nclass = 0", fillcolor="#e78a47"] ;
2 -> 3 ;
4 [label="V21 <= -0.43\ngini = 0.44\nsamples = 13\nvalue = [10, 5]\nclass = 0", fillcolor="#f2c09c"] ;
3 -> 4 ;
5 [label="gini = 0.0\nsamples = 2\nvalue = [0, 3]\nclass =  1", fillcolor="#399de5"] ;
4 -> 5 ;
6 [label="V12 <= -2.24\ngini = 0.28\nsamples = 11\nvalue = [10, 2]\nclass = 0", fillcolor="#ea9a61"] ;
4 -> 6 ;
7 [label="gini = 0.0\nsamples = 2\nvalue = [0, 2]\nclass =  1", fillcolor="#399de5"] ;
6 -> 7 ;
8 [label="gini = 0.0\nsamples = 9\nvalue = [10, 0]\nclass = 0", fillcolor="#e58139"] ;
6 -> 8 ;
9 [label="time <= -0.37\ngini = 0.1\nsamples = 207\nvalue = [312, 18]\nclass = 0", fillcolor="#e68844"] ;
3 -> 9 ;
10 [label="time <= -0.47\ngini = 0.26\nsamples = 39\nvalue = [51, 9]\nclass = 0", fillcolor="#ea975c"] ;
9 -> 10 ;
11 [label="gini = 0.0\nsamples = 26\nvalue = [39, 0]\nclass = 0", fillcolor="#e58139"] ;
10 -> 11 ;
12 [label="V2 <= 0.12\ngini = 0.49\nsamples = 13\nvalue = [12, 9]\nclass = 0", fillcolor="#f8e0ce"] ;
10 -> 12 ;
13 [label="gini = 0.0\nsamples = 5\nvalue = [9, 0]\nclass = 0", fillcolor="#e58139"] ;
12 -> 13 ;
14 [label="V28 <= 0.04\ngini = 0.38\nsamples = 8\nvalue = [3, 9]\nclass =  1", fillcolor="#7bbeee"] ;
12 -> 14 ;
15 [label="gini = 0.0\nsamples = 3\nvalue = [0, 6]\nclass =  1", fillcolor="#399de5"] ;
14 -> 15 ;
16 [label="V19 <= -0.65\ngini = 0.5\nsamples = 5\nvalue = [3, 3]\nclass = 0", fillcolor="#ffffff"] ;
14 -> 16 ;
17 [label="gini = 0.0\nsamples = 2\nvalue = [0, 3]\nclass =  1", fillcolor="#399de5"] ;
16 -> 17 ;
18 [label="gini = 0.0\nsamples = 3\nvalue = [3, 0]\nclass = 0", fillcolor="#e58139"] ;
16 -> 18 ;
19 [label="V16 <= 1.3\ngini = 0.06\nsamples = 168\nvalue = [261, 9]\nclass = 0", fillcolor="#e68540"] ;
9 -> 19 ;
20 [label="V10 <= -0.99\ngini = 0.05\nsamples = 157\nvalue = [250, 6]\nclass = 0", fillcolor="#e6843e"] ;
19 -> 20 ;
21 [label="V1 <= 0.86\ngini = 0.31\nsamples = 17\nvalue = [17, 4]\nclass = 0", fillcolor="#eb9f68"] ;
20 -> 21 ;
22 [label="V13 <= 1.1\ngini = 0.19\nsamples = 15\nvalue = [17, 2]\nclass = 0", fillcolor="#e89050"] ;
21 -> 22 ;
23 [label="V7 <= 1.05\ngini = 0.11\nsamples = 13\nvalue = [16, 1]\nclass = 0", fillcolor="#e78945"] ;
22 -> 23 ;
24 [label="gini = 0.0\nsamples = 11\nvalue = [15, 0]\nclass = 0", fillcolor="#e58139"] ;
23 -> 24 ;
25 [label="V17 <= 0.25\ngini = 0.5\nsamples = 2\nvalue = [1, 1]\nclass = 0", fillcolor="#ffffff"] ;
23 -> 25 ;
26 [label="gini = 0.0\nsamples = 1\nvalue = [1, 0]\nclass = 0", fillcolor="#e58139"] ;
25 -> 26 ;
27 [label="gini = 0.0\nsamples = 1\nvalue = [0, 1]\nclass =  1", fillcolor="#399de5"] ;
25 -> 27 ;
28 [label="V4 <= -0.68\ngini = 0.5\nsamples = 2\nvalue = [1, 1]\nclass = 0", fillcolor="#ffffff"] ;
22 -> 28 ;
29 [label="gini = 0.0\nsamples = 1\nvalue = [1, 0]\nclass = 0", fillcolor="#e58139"] ;
28 -> 29 ;
30 [label="gini = 0.0\nsamples = 1\nvalue = [0, 1]\nclass =  1", fillcolor="#399de5"] ;
28 -> 30 ;
31 [label="gini = 0.0\nsamples = 2\nvalue = [0, 2]\nclass =  1", fillcolor="#399de5"] ;
21 -> 31 ;
32 [label="V21 <= 1.04\ngini = 0.02\nsamples = 140\nvalue = [233, 2]\nclass = 0", fillcolor="#e5823b"] ;
20 -> 32 ;
33 [label="V23 <= -0.26\ngini = 0.01\nsamples = 138\nvalue = [232, 1]\nclass = 0", fillcolor="#e5823a"] ;
32 -> 33 ;
34 [label="V23 <= -0.27\ngini = 0.07\nsamples = 17\nvalue = [28, 1]\nclass = 0", fillcolor="#e68640"] ;
33 -> 34 ;
35 [label="gini = 0.0\nsamples = 16\nvalue = [28, 0]\nclass = 0", fillcolor="#e58139"] ;
34 -> 35 ;
36 [label="gini = 0.0\nsamples = 1\nvalue = [0, 1]\nclass =  1", fillcolor="#399de5"] ;
34 -> 36 ;
37 [label="gini = 0.0\nsamples = 121\nvalue = [204, 0]\nclass = 0", fillcolor="#e58139"] ;
33 -> 37 ;
38 [label="time <= 0.63\ngini = 0.5\nsamples = 2\nvalue = [1, 1]\nclass = 0", fillcolor="#ffffff"] ;
32 -> 38 ;
39 [label="gini = 0.0\nsamples = 1\nvalue = [1, 0]\nclass = 0", fillcolor="#e58139"] ;
38 -> 39 ;
40 [label="gini = 0.0\nsamples = 1\nvalue = [0, 1]\nclass =  1", fillcolor="#399de5"] ;
38 -> 40 ;
41 [label="V6 <= -1.75\ngini = 0.34\nsamples = 11\nvalue = [11, 3]\nclass = 0", fillcolor="#eca36f"] ;
19 -> 41 ;
42 [label="gini = 0.0\nsamples = 1\nvalue = [0, 1]\nclass =  1", fillcolor="#399de5"] ;
41 -> 42 ;
43 [label="V3 <= -1.14\ngini = 0.26\nsamples = 10\nvalue = [11, 2]\nclass = 0", fillcolor="#ea985d"] ;
41 -> 43 ;
44 [label="gini = 0.0\nsamples = 1\nvalue = [0, 1]\nclass =  1", fillcolor="#399de5"] ;
43 -> 44 ;
45 [label="V13 <= -1.28\ngini = 0.15\nsamples = 9\nvalue = [11, 1]\nclass = 0", fillcolor="#e78c4b"] ;
43 -> 45 ;
46 [label="gini = 0.0\nsamples = 1\nvalue = [0, 1]\nclass =  1", fillcolor="#399de5"] ;
45 -> 46 ;
47 [label="gini = 0.0\nsamples = 8\nvalue = [11, 0]\nclass = 0", fillcolor="#e58139"] ;
45 -> 47 ;
48 [label="gini = 0.0\nsamples = 2\nvalue = [0, 3]\nclass =  1", fillcolor="#399de5"] ;
2 -> 48 ;
49 [label="V20 <= -0.23\ngini = 0.46\nsamples = 39\nvalue = [20, 36]\nclass =  1", fillcolor="#a7d3f3"] ;
1 -> 49 ;
50 [label="V18 <= 0.88\ngini = 0.34\nsamples = 10\nvalue = [11, 3]\nclass = 0", fillcolor="#eca36f"] ;
49 -> 50 ;
51 [label="V6 <= 0.0\ngini = 0.26\nsamples = 9\nvalue = [11, 2]\nclass = 0", fillcolor="#ea985d"] ;
50 -> 51 ;
52 [label="V23 <= 0.07\ngini = 0.44\nsamples = 3\nvalue = [1, 2]\nclass =  1", fillcolor="#9ccef2"] ;
51 -> 52 ;
53 [label="gini = 0.0\nsamples = 1\nvalue = [1, 0]\nclass = 0", fillcolor="#e58139"] ;
52 -> 53 ;
54 [label="gini = 0.0\nsamples = 2\nvalue = [0, 2]\nclass =  1", fillcolor="#399de5"] ;
52 -> 54 ;
55 [label="gini = 0.0\nsamples = 6\nvalue = [10, 0]\nclass = 0", fillcolor="#e58139"] ;
51 -> 55 ;
56 [label="gini = 0.0\nsamples = 1\nvalue = [0, 1]\nclass =  1", fillcolor="#399de5"] ;
50 -> 56 ;
57 [label="V3 <= 1.03\ngini = 0.34\nsamples = 29\nvalue = [9, 33]\nclass =  1", fillcolor="#6fb8ec"] ;
49 -> 57 ;
58 [label="V27 <= -0.03\ngini = 0.23\nsamples = 26\nvalue = [5, 33]\nclass =  1", fillcolor="#57ace9"] ;
57 -> 58 ;
59 [label="V23 <= -0.15\ngini = 0.44\nsamples = 6\nvalue = [4, 2]\nclass = 0", fillcolor="#f2c09c"] ;
58 -> 59 ;
60 [label="gini = 0.0\nsamples = 2\nvalue = [0, 2]\nclass =  1", fillcolor="#399de5"] ;
59 -> 60 ;
61 [label="gini = 0.0\nsamples = 4\nvalue = [4, 0]\nclass = 0", fillcolor="#e58139"] ;
59 -> 61 ;
62 [label="V22 <= -1.07\ngini = 0.06\nsamples = 20\nvalue = [1, 31]\nclass =  1", fillcolor="#3fa0e6"] ;
58 -> 62 ;
63 [label="gini = 0.0\nsamples = 1\nvalue = [1, 0]\nclass = 0", fillcolor="#e58139"] ;
62 -> 63 ;
64 [label="gini = 0.0\nsamples = 19\nvalue = [0, 31]\nclass =  1", fillcolor="#399de5"] ;
62 -> 64 ;
65 [label="gini = 0.0\nsamples = 3\nvalue = [4, 0]\nclass = 0", fillcolor="#e58139"] ;
57 -> 65 ;
66 [label="V17 <= 2.46\ngini = 0.04\nsamples = 95\nvalue = [3, 149]\nclass =  1", fillcolor="#3d9fe6"] ;
0 -> 66 [labeldistance=2.5, labelangle=-45, headlabel="False"] ;
67 [label="gini = 0.0\nsamples = 85\nvalue = [0, 131]\nclass =  1", fillcolor="#399de5"] ;
66 -> 67 ;
68 [label="V16 <= 0.96\ngini = 0.24\nsamples = 10\nvalue = [3, 18]\nclass =  1", fillcolor="#5aade9"] ;
66 -> 68 ;
69 [label="gini = 0.0\nsamples = 1\nvalue = [3, 0]\nclass = 0", fillcolor="#e58139"] ;
68 -> 69 ;
70 [label="gini = 0.0\nsamples = 9\nvalue = [0, 18]\nclass =  1", fillcolor="#399de5"] ;
68 -> 70 ;
}